digraph Tree {
node [shape=box, style="filled, rounded", color="black", fontname="helvetica"] ;
edge [fontname="helvetica"] ;
0 [label="petal width (cm) <= 0.75\ngini = 0.67\nsamples = 95\nvalue = [48, 53, 49]\nclass = versicolor", fillcolor="#f7fefa"] ;
1 [label="gini = 0.0\nsamples = 32\nvalue = [48, 0, 0]\nclass = setosa", fillcolor="#e58139"] ;
0 -> 1 [labeldistance=2.5, labelangle=45, headlabel="True"] ;
2 [label="sepal length (cm) <= 6.15\ngini = 0.5\nsamples = 63\nvalue = [0, 53, 49]\nclass = versicolor", fillcolor="#f0fdf5"] ;
0 -> 2 [labeldistance=2.5, labelangle=-45, headlabel="False"] ;
3 [label="petal width (cm) <= 1.7\ngini = 0.3\nsamples = 30\nvalue = [0, 39, 9]\nclass = versicolor", fillcolor="#67eb9e"] ;
2 -> 3 ;
4 [label="gini = 0.0\nsamples = 23\nvalue = [0, 38, 0]\nclass = versicolor", fillcolor="#39e581"] ;
3 -> 4 ;
5 [label="petal length (cm) <= 4.85\ngini = 0.18\nsamples = 7\nvalue = [0, 1, 9]\nclass = virginica", fillcolor="#8f4fe8"] ;
3 -> 5 ;
6 [label="gini = 0.0\nsamples = 1\nvalue = [0, 1, 0]\nclass = versicolor", fillcolor="#39e581"] ;
5 -> 6 ;
7 [label="gini = 0.0\nsamples = 6\nvalue = [0, 0, 9]\nclass = virginica", fillcolor="#8139e5"] ;
5 -> 7 ;
8 [label="petal width (cm) <= 1.7\ngini = 0.38\nsamples = 33\nvalue = [0, 14, 40]\nclass = virginica", fillcolor="#ad7eee"] ;
2 -> 8 ;
9 [label="petal length (cm) <= 5.0\ngini = 0.12\nsamples = 10\nvalue = [0, 14, 1]\nclass = versicolor", fillcolor="#47e78a"] ;
8 -> 9 ;
10 [label="gini = 0.0\nsamples = 9\nvalue = [0, 14, 0]\nclass = versicolor", fillcolor="#39e581"] ;
9 -> 10 ;
11 [label="gini = 0.0\nsamples = 1\nvalue = [0, 0, 1]\nclass = virginica", fillcolor="#8139e5"] ;
9 -> 11 ;
12 [label="gini = 0.0\nsamples = 23\nvalue = [0, 0, 39]\nclass = virginica", fillcolor="#8139e5"] ;
8 -> 12 ;
}